{"W1": [[0.15026418759125287, -0.280323151326922, 0.5380717277195777, 0.4306526859164565, -0.5378694284627521, -0.4064912020722691, -0.7703974244552287, -0.12985603971385315, 0.6212996158761621, -0.18088641228950808, 0.07853888481891262, 0.42302975042567387], [0.06165004723330118, 0.1368035230168612, -0.3598541267337619, 0.18900571706268937, 0.24280773522531607, -0.09946958661140227, -0.9963254563257978, 0.5309422064395309, -0.6496537407420402, -0.17581899324501657, -0.3645308064149781, -0.1006366304576075], [-0.3741204028310341, -0.21635614633385392, 0.2630513987268942, 0.21070664133764447, -0.13557761389930822, 0.4390976397851689, 0.5693026530710573, -0.5223499904841613, 0.04344997560541464, -0.25435558945576103, 0.011276886996704552, 0.07413058600095113], [-0.3091955168157131, -0.608624374044675, -0.8227758720938044, -0.028612905466936376, 0.4801542981523297, 0.15183894313843307, 0.41148302065635073, 0.16819702372351097, -0.17897878480295573, 0.16620228628793743, 0.28693413237839044, 0.01529260282690482], [0.2492860142227401, -0.4927343908528473, -0.09517077240209958, 0.26008395915454663, -0.33407874014710137, 0.5958779961459333, -0.03350687576732417, 0.05084791376078972, -0.1335399413457821, -0.43683524037384724, 0.2695452714209699, -0.3829387095333047], [0.046533538336673126, -0.4153183830899112, 0.026880284930782636, -0.09556346655661488, 0.08713868820518339, 0.29152950742641437, 0.08938908653382607, -0.31274780532930985, -0.146971205099456, 0.5654625296698587, -0.36778393969590706, 0.0445106557980343], [-0.8573153261014976, 0.06830395348466058, -0.17048244451238306, 0.08731281752953883, -0.2151929309781544, 0.23690425623674385, -0.12407346570947504, -0.5136359060086303, -0.40953810792759054, 0.23603060443909535, -0.3467018705787304, 0.46673103044516445], [0.058570207369733854, 0.36256917770560926, 0.19027429216867411, -0.3872306818485295, -0.3107397177718128, -0.34999762505980603, 0.2249683646607419, 0.07287906686817214, -0.1836894741768559, 0.40130793848365676, 0.33309390003873385, -0.6012231874461135], [0.20714273088849158, -0.14320509506933446, 0.1413764722822645, -0.11814108476926403, 0.020494760275561907, 0.21463933749173592, 0.1998006648394423, 0.3952067310538903, 0.12025144927299948, -0.058710846317634284, 0.3290178238683705, -0.059602381449490406], [0.2973024722850566, 0.28648941345558876, 0.12988227432963448, -0.4665842785764022, -0.4494836912484886, -0.38095672637536354, -0.04336977177243575, 0.3863067312229103, 0.425089808860864, 0.1628042272860646, -0.008753755066062184, -0.3470711495870709], [-0.5888474868876729, 0.07546627881863394, -0.21615275044366108, -0.1913186106401607, -0.13710142881670273, -0.644720314925567, -0.6219028010391224, 0.008079935782991206, 0.08753971938174457, -0.4502092021655775, 0.15524584038722952, -0.14313076851329304], [0.5332463467442411, -0.48710017244422243, 0.8824811606658498, -0.023340289702577587, 0.056791119170678014, -0.008052838722338107, -0.4285592169358365, -0.14364801208694006, -0.04772104303930656, -0.020647120073678422, -0.1634046372729069, 0.10882779207065704], [0.10636676075081528, -0.8672670434691979, -0.355846901619568, -0.5683883847915214, 0.249522890128762, 0.15074233483769625, 0.5602152171751523, 0.020897760053711672, 0.14177615743908212, -0.05436035087598851, 0.1026877504071308, 0.15955983854860828], [0.03348943603724045, 0.18328294099584216, 0.41830331050441527, 0.12150422156560252, 0.6783572623222944, -0.2278485446885986, 0.3600296767028362, 0.3489594657179685, 0.21811609064262272, 0.5339498081621276, -0.12783637423903021, -0.06327086118297205], [-0.5951487430526535, -0.23811247286555756, -0.27830166866897227, 0.5347754471603099, -0.1708245306677055, 0.4661304198291304, 0.05029534473990643, 0.1995254054526972, -0.2389037093674871, 0.21090237315049792, 0.5079083333612315, 0.3183539921091225], [0.0871404399789617, -0.11697118904723651, -0.012542211233822861, 0.38425636852526485, -0.3090594764645096, -0.6335303659832952, -0.23427149708625447, -0.14400365759093273, -0.5149943739117405, 0.21232820972445354, -0.23834371616862157, -0.0979099331117706], [-0.003699194706018809, 0.814801049398314, 0.15018916743610278, -0.17612960478166279, -0.4907563440483315, -0.553050180278324, 0.1027388436372295, 0.479276858367712, 0.2361115604696195, 0.2810887876556905, 0.008333964001563374, -0.08056339543699423]], "b1": [[0.0, 0.0, 0.0, 0.0, 0.0, 0.0, 0.0, 0.0, 0.0, 0.0, 0.0, 0.0]], "W2": [[0.30833736055595345], [0.3648105149204983], [-0.7667191711105497], [-0.7755164459064281], [-0.1137817822380602], [0.5990229544237221], [-0.40636989755021913], [-0.26118373402286876], [0.06998361236888385], [0.19450790868739157], [-0.32320006926873285], [0.10427838008481663]], "b2": [[0.0]]}