{"W1": [[0.31797538428534344, -0.1429796640990776, -0.11905556388839306, 0.6139770606407934, 0.004126925899378088, 0.1116032691333593, -0.19984812109627725, -0.7898773048472164, -0.3268582615130787, 0.5635055948042759, -0.0067103417180900205, -0.28075647586827496], [0.11604329686048717, 0.3191376246915671, 0.6092305841412317, -0.6105897832456189, 0.1339748238164076, 0.045401472851842734, 0.05856920342552216, -0.640927980361328, -0.05558847599555729, 0.39477475705925275, -0.582774329653588, -0.23260110092701825], [0.39734808772303143, -0.5441241039374758, 0.3653327763122402, 0.6504352196394974, 0.22006350734716, -0.11433860368543954, -0.24575754748743267, 0.08392653663831603, -0.07399956679558797, -0.1085859071690451, 0.01839414930002224, -0.01823767183714895], [0.4260824529732747, 0.24478249771141708, -0.25938815378531543, -0.029332431836452764, -0.06350351138152774, -0.32881423446479, 0.27945091926208887, 0.12961747594858622, -0.9349381043226538, -0.3047680760277735, -0.17542692219715417, -0.21989868422129594], [0.36764653727909086, -0.1603944277811048, -0.6741967508155798, -0.22077639707534547, 0.06114674813724799, 0.3255549780476903, -0.27970210555368796, 0.12588481943688323, 0.3249426306869574, -0.570306970857084, 0.5400391637392892, -0.06613093172000213], [-0.5586219713060865, 0.2584386581134546, 0.2188349060142678, 0.10148420192962686, -0.5717920776412122, 0.175103193784886, -0.04253631853906307, 0.23939037782951114, -0.07552060386790826, 0.73573718072232, 0.05338806572875311, -0.10350364374828952], [-0.37253030490105243, -0.11056270986891659, 0.7081196970596282, 0.3526531063620794, -0.05902533240542852, 0.21510251706912487, -0.19949192597085566, -0.6175382980130424, -0.6823735534849825, 0.6640054853573166, -0.06495546919878634, 0.5586260729441924], [0.1573284547640235, 0.7492690247683739, -0.08060891078682508, -0.7034891333626376, 0.5909439041343937, -0.08648161124475448, -0.13087046290840038, 0.23862627183974397, 0.7471458823970135, -0.0664656695877044, -0.2536797138235415, 0.025197027092582473], [0.2530581270850109, 0.07047979726880454, -0.2893470959918288, 0.6130553360564219, 0.24593258849567717, -0.518641108084603, -0.23662784752943467, -0.47374314559352015, 0.11876872834559897, -0.31012698484347245, 0.2238068177429387, 0.12730095624016624], [-0.3351343900733703, -0.27647829983835437, -0.15074261155956817, -0.0011949908674719772, -0.21258874486085996, 0.1266421513344981, 0.5647674896648263, -0.14332440421492124, -0.09629736495042382, -0.7876656484748071, -0.5502201379028102, -0.44577292775603644], [0.14020129094141817, 0.5853021373753821, -0.07014762840182809, 0.1335432630656446, 0.352887183908212, -0.295953620954612, 0.035083823145475736, -0.28227705189367647, -0.47547948242558685, -0.5807703538307689, 0.2566999293678604, -0.3294218286092913], [0.23860067374141306, -0.36197742633939634, 0.3640831171371819, -0.21617392446111552, -0.37961455154157736, -0.28592202103247344, 0.11964299573440068, 0.1774907047897949, -0.0300375018521677, 0.4695391093955008, -0.4000198693073509, -0.347357699749906], [-0.22283198751586242, 0.4265897426147367, -0.44930973212957914, -0.23071118600993515, -0.4954782933201967, -0.5112924391179869, 0.3193533570417637, -0.08801937660291757, -0.49448139323843865, 0.4701618659934662, 0.16908520608604574, -0.09032956857731113], [-0.0909420445186766, 0.45101144669235244, 0.0914649738366535, 0.39181893560057157, 0.035665520701277785, 0.24049132393232053, -0.1616726923040028, -0.18898374486150554, -0.36971443405377136, -0.34560256404330036, 0.008540044472636003, 0.2073399609380055], [0.27223860069914013, -0.19951494765266076, -0.10037228851777501, 0.0886396800057012, 0.28179295639888996, -0.01621675058052802, -0.46108710320109136, -0.23305240190598342, -0.2564356278836216, -0.43432869475096264, -0.2965501948163814, -0.07423786911214117], [-0.0488717306692787, 0.30822069650227013, -0.16152839691764623, -0.29951389042897025, -0.1980223075463387, -0.1522446215693958, 0.050189941263377634, 0.2019193552563241, -0.7126073162841575, 0.442118304425109, 0.2852665527672068, -0.25897309617076253], [-0.16824014873734044, 0.3550858501048626, 0.21177707464536788, 0.4040527163523907, -0.17870850890923884, -0.29092435736919375, -0.3020906188824909, 0.2979292782759439, 0.15537186857103502, 0.17294152113294212, 0.9863823365038178, 0.1379050334427321]], "b1": [[0.0, 0.0, 0.0, 0.0, 0.0, 0.0, 0.0, 0.0, 0.0, 0.0, 0.0, 0.0]], "W2": [[-0.48292113082908616], [-0.7593676594206926], [-0.3823709641232078], [-0.05904797519154361], [-0.5526862151026305], [-0.46931726810461627], [0.5013218639866239], [0.8173612435503563], [0.14023798342471136], [-0.019479942950498895], [-0.010740711699359374], [-0.15440917826348577]], "b2": [[0.0]]}