{"W1": [[0.6030983578958972, 0.6856638142152773, 0.12174231936991686, 0.6115028678749782, -0.6562133735765248, -0.1679409232334329, 0.4640926636123886, 0.010005447024292539, -0.05902563135938771, -0.12389639489110821, -0.4322700224553224, -0.4976921336765949], [-0.4279430389838688, -0.06092422667919614, -0.20633794285414955, -0.35067396417650265, -0.03082193894724472, 0.3051804835087692, -0.5882804112264346, -0.24691872544638882, 0.16924021751041404, 0.12616456622664607, -0.5049174989721495, 0.3902137455014786], [0.2633025334420816, 0.23443740937631102, 0.005458943552894462, -0.34470639929442165, -0.051588037510984924, 0.45814877331320125, -0.6258010854464168, -0.4099924716484761, 0.09947785614988519, 0.20715950245557016, 0.2620100414153876, -0.08163495958101799], [0.06727949968413952, 0.04765838570804008, -0.5195689173663791, -0.6148011226819876, 0.034086731226949135, -0.740751231583295, -0.06307519510102343, -0.1638211140805112, -0.4431121061953464, 0.23398373596619654, 0.2368667908439244, -0.2229292444261591], [0.27788867029489805, -0.3568738530443245, -0.25357363889978873, 0.1772652671248714, -0.2444669817108508, 0.03899722762362399, 0.033989487004056844, -0.16824716971135306, 0.09979249981710754, -0.1929234454958279, 0.5544694853108812, -0.07023084384065116], [0.08536602413354545, 0.3252288024417495, -0.0680555144112216, -0.6150830731953415, 0.3940545558251615, 0.06733213878336, 1.2106652639724373, 0.09865063358884128, -0.04557609831766697, -0.5166632986961429, 0.14470938324584504, 0.20049768249435515], [-0.48389875557259027, -0.4142928287935711, 0.17605973020128743, -0.24424615312802794, -0.011767498666093553, 0.09580809282842591, -0.30796021023992587, 0.7774289396217682, 0.397149052999188, 0.38195884464513563, 0.29663755145217674, -0.25691593455931694], [0.25465920158713545, 0.000235170657001387, 0.30262483890780745, 0.1334396352592536, 0.027746465296949525, -0.11131911083133254, 0.059739971679229974, -0.20528280067602672, -0.29586251186647133, -0.026759273523192784, -0.27431220695576825, 0.30789343720039236], [0.3793745062474748, 0.32943946309444594, 0.26846586397137256, 0.9172547938007751, 0.36159500049419024, -0.3566102428732346, 0.3825196311318449, -0.04667611113962725, -0.025186656428694106, -0.3762429072809222, -0.07744749448590642, 0.1518471875732789], [0.10626310210255054, -0.22683057046122437, 0.5669076222850181, 0.2046576564346366, -0.2238645472460251, 0.061864654139226205, 0.4066296231436951, -0.2369596403570043, -0.13592014639642178, 0.1391530701984836, -0.04211920599316727, 0.00885640967413204], [0.35710197690327483, -0.15403910494041073, 0.03531551759676392, 0.06441188592216662, -0.19316630977778057, 0.7472713815918018, -0.09770369808689133, 0.03627245900027479, 0.35362237104886257, 0.15314917858000401, 0.12209382887573694, -0.012038798279005164], [0.052702391156812654, -0.2956846462164977, 0.32127172029198836, 0.12591582746044427, -0.1384253746788222, 0.44742552319567375, -0.36248778136891224, -0.06454434028564746, -0.06947986073543361, -0.21606871974979525, 0.6147551827921057, 0.012310329390956073], [0.11984153790090685, 0.01587077862766505, 0.21592833563817576, 0.12407590953212438, -0.10936253886328004, 0.10608252773365788, 0.6039496544363633, 0.039679025329188745, -0.19304357402344108, 0.10159800229778128, -1.0385322315394931, 0.5672943292355251], [0.5783707562376226, 0.190136905616224, -0.007854963611877451, -0.05461166986383501, -0.43382977980513143, -0.6665917207112256, 0.18775849032687658, 0.13132761705435445, -0.16123373916405107, 0.3335500700485154, -0.0059001171030513225, -0.07792578178531401], [-0.1842422018597899, 0.13142077381859807, 0.25901417137860294, -0.02976628477595202, 0.0839566703464825, 0.0002137986872677642, -0.17733374629138618, 0.17608311540532867, -0.3578990592135194, -0.1271131446619213, -0.2766131714023362, -0.38042460822289503], [0.21675443352296764, -0.12184383962959035, 0.08474567924528259, -0.06226311933111619, 0.3324477704244358, 0.5800577348270688, 0.038936500318133095, -0.12327685472727588, -0.3215265107320503, -0.2583833989679665, -0.19584742311167302, -0.2084374022729626], [0.40941061599193895, 0.03451587985041658, -0.15381256388822007, 0.06612489019749236, 0.28136154151326254, -0.14380969006569444, -0.12937524122556493, -0.3257526791258572, -0.8811589491712916, 0.12399499074253674, -0.17793923027691788, -0.15942800357725667]], "b1": [[0.0, 0.0, 0.0, 0.0, 0.0, 0.0, 0.0, 0.0, 0.0, 0.0, 0.0, 0.0]], "W2": [[-0.8693304070324416], [0.20423815603678702], [-0.15726311409365842], [-0.17620463365106667], [-0.9000837911261667], [-0.14972217086724401], [-0.273879974901679], [-0.0591356366256269], [0.6050839266056416], [-0.30395208883031305], [-0.35739925567623965], [0.1673997570959099]], "b2": [[0.0]]}