{"W1": [[0.16655783756567294, -0.35332840194718657, 0.5342745195357702, -0.5014966670774615, -0.17980971444626326, 0.23445829148242794, -0.22771903430897003, 0.3477225418183948], [0.6153060582363649, 0.4528243377403905, -0.8658570907327452, 0.056280475766246736, 0.46004084895781694, -0.5888679861577154, 0.3236084924564611, 0.2984975360121291], [-0.5420630786428671, 0.37308018992917197, 0.12195416072942734, 0.2908595781817325, -0.4321480364141673, 0.06714291241684701, -0.7624448680842861, -1.0183014248426465], [0.06298038697607668, 0.4922022129183743, 0.11311678214179151, -0.028373942376781702, -0.08386780810866068, -0.42152805770107865, -0.0992192124871692, 0.18858302721903014], [-0.19463729957228876, 0.335672645638899, 0.08764269952281498, 0.14175750512192845, 0.3974220652024179, -0.23557219098677423, 0.2948839627515365, -0.17283764229927598], [0.1518354930329357, -0.2887977275890438, -0.4072791311483364, 0.04108316320115195, -0.8430870935010716, -0.13249482864118767, -0.7183936364069377, 0.3484840542213262], [0.4696237353584717, -0.3863707320681789, 0.19154737994701085, 0.40210571536060397, 0.4035965058230741, 0.09590532851842214, 0.3283910341502871, -0.29038979067462417], [0.037173496733145635, -0.20889499402118242, -0.3281599580911814, 0.016128038965054593, 0.15542030906710533, 0.520336939512876, 0.11858115673002269, 0.28708006260136676], [0.2921571167885478, 1.2019019067130363, -0.80947109903896, -0.3076533780544436, 0.6592179072016691, -0.1574250328682179, 0.39614320607200887, 0.10286338612121113], [0.9414751350993794, -0.4977730723143083, 0.5464058180757736, 0.7824365461504237, -0.4536619134013313, 0.3501102164419418, -0.43178382569057944, 0.013488665299365987]], "b1": [[0.0, 0.0, 0.0, 0.0, 0.0, 0.0, 0.0, 0.0]], "W2": [[-0.12829396509108681], [-1.2013769674498436], [0.21211712985594938], [0.07166958380311544], [0.7395394867028802], [0.3055718273247713], [1.1454419620393812], [0.05352119103935691]], "b2": [[0.0]]}