{"W1": [[-0.7653128039072826, 0.6325741341676425, -0.2366484255952385, -0.10010568087497004, -0.5671682415715525, 0.027544284234999068, -0.20286486844993937, 0.15101452010451422, -0.39411910760566404, 0.3681252048918507, 0.10502226496860492, -0.5915970332001048], [0.10906840949985652, 0.08974209587568706, 0.20556402237396834, 0.23039887169969164, -0.6784007302592242, 0.0014059465949871762, 0.2906930640712433, -0.29078053379317365, -0.26556985070324995, -0.4727900745977706, -0.06975712098208334, 0.04850995352957431], [0.3032397939865273, -0.6915594000255553, 0.4517867541557338, -0.12510953289722865, 0.4264243469259282, -0.1373034247860042, 0.2160301225241193, -0.43246850797372016, 0.28795046118923767, -0.30708509317636073, -0.4310822187241621, 0.023516103194641313], [0.24189811703201242, 0.7973974815496233, 0.22840827941709657, -0.3109167942024446, 0.10097506830971874, -0.21724603350291616, 0.5650625962538025, 0.0821079250273314, 0.41528606266444473, 0.06795141228509846, -0.30936926687479177, -0.01032311563451762], [-0.3772109637373621, 0.46421375833905565, -0.058995293780988195, 0.523780955114197, -0.07587299402609843, -0.18061237547783823, 0.40789387335466587, -0.5816094252841105, 0.027638565946950515, -0.26055639339422665, -0.11114895004997068, -0.004505371355430115], [-0.10678796263208522, -0.04420323167407523, 0.3676752917767884, -0.25733355434285987, -0.19588025110218632, 0.05643403918348522, 0.0924979042859523, -0.33692242267056627, -0.10108762727708734, -0.05148586504249907, 0.1593527152665389, -0.0025489640982224054], [-0.9834396216032784, -0.4911974917507799, -0.14800584721178559, 0.20491866544722792, 0.18256947584547542, 0.5771512187853942, 0.29029978380872956, -0.0772793612003886, 0.07183024390053856, 0.4308103013458066, 0.10963885699559546, 0.3156708483689106], [-0.556243224555959, 0.413066876479246, -0.3097951769878999, -0.3798498397573922, -0.14030569116956612, 0.04409241857178958, 0.4319716871461825, 0.18379419142886907, 0.5669539777484875, 0.35702673588776074, 0.5621060494459857, -0.4069715965250758], [-0.14924327041694657, -0.3037470266312947, 0.1182129941159631, -0.2180551532645697, 0.22436719939557662, 0.15362422114535412, 0.06495688084905493, 0.10246799532153722, 0.46738682556267297, -0.18330321099103125, -0.6980536849970912, -0.3903842656264312], [0.2669822706378326, -0.17993257973005336, -0.27355071413343407, -0.3892115568234493, -0.6986622020213734, -0.012937066948735518, 0.06649509258906446, 0.08258912030265182, -0.04409776704533896, -0.2837983675395324, -0.32378842934772406, 0.2150372287968339], [-0.137230786625969, -0.1939093908276547, -0.7280827148962854, 0.06108733810947141, -0.26031990196491966, 0.15984502071679904, 0.555763954095757, 0.5303440232985704, 0.03654632388340698, 0.2538993069438673, -0.03649901346293825, -0.8039384490747037], [-0.5256898648108818, -0.09428831553279668, 0.3827594424608855, -0.37844064190660637, 0.007071384536888023, 0.25416131573256345, 0.011079788349263826, 0.39737659593645847, 0.02313243304893556, -0.13003799513386802, 0.3863883620124832, 0.5255713325280537], [-0.11313964362793202, 0.10103930623782043, 0.11971354113682965, 0.25010141754585413, 0.03945259276369346, -0.37538617611686165, -0.21374062357652124, 0.0027602181520246082, -0.07272869480021281, 0.13480955441282952, 0.2898064565400478, -0.33783457926320143], [-0.3723589757003774, 0.01553000272507338, -0.3317787188810128, 0.5023668791360049, -0.41342829376424056, -0.02836494596923358, 0.29581105322732587, -0.38465595081359405, -0.008028096322837325, 0.07105318079898983, -0.03588220739271147, -0.09872088594708266], [0.32861300210015226, 0.1687852934397819, 0.3790423973189289, 0.4118426960627895, 0.05746412584627074, -0.47798918710692156, 0.13984183689694987, 0.1864412580632395, -0.09575782251252148, 0.48190151722757774, 0.3153788995851267, -0.11128057597754124], [0.250598658824058, -0.06643200845864992, -0.09036791501275403, -0.47520565548716104, 0.4817664891255703, 0.7730906614779893, 0.10936483357530498, -0.3287755297745574, 0.2645630000650298, -0.8035680236233647, -0.13396785043743833, 0.1587271239143283], [-0.10173653973145878, 0.15939395591595062, -0.010358235087546732, -0.3457700010436001, -0.29587082074405374, -0.11331736896861132, -0.46450945041504066, -0.3436340175372717, 0.13394879400805884, 0.24018905745701166, -0.26472964348893785, -0.22475717697642567]], "b1": [[0.0, 0.0, 0.0, 0.0, 0.0, 0.0, 0.0, 0.0, 0.0, 0.0, 0.0, 0.0]], "W2": [[-0.4755746723324019], [-0.2265770453514547], [0.24152010718838093], [-0.37292761631247334], [0.5301713457987346], [0.6779958344629542], [-0.3747730309246755], [-0.42486612992965617], [0.42496426984719565], [0.10586204594971699], [-0.1660842526771608], [0.26914730076062665]], "b2": [[0.0]]}