{"W1": [[0.11462758934903189, 0.206757882385292, -0.02725031064151173, -0.2775759951713704, 0.21146496077891513, 0.06927753479574693, 0.05978900982402902, 0.19509901671727584, 0.15415360032525036, -0.5269051673285041, 0.20453666239916968, 0.206258824725166], [0.03537485645027783, -0.35843933567088887, 0.12879087972302308, 0.3989875989527202, 0.2962627850459235, -0.3396725700733253, -0.7730908075270281, -0.18088124309442735, -0.3131812763427609, -0.16652850323008803, -0.16067796901828738, 0.44682409344654467], [-0.10837877215525378, -0.36678123645478816, -0.1605906299916875, -0.6615618023808615, -0.08882351744679286, -0.1232703532392859, -0.2961658588486084, -0.09861736008259823, -0.1862021225798003, -0.3127296208628793, 0.4205203993974427, 0.3616006553775075], [-0.3605783381166746, 0.007884499930431286, -0.10941481591256495, 0.05445063346913781, 0.09597086719648823, 0.7596594798437446, 0.23170592890621508, -0.22839318738500514, 0.5832754203502697, -0.17460445916208914, -0.2545696932299891, 0.19789712889649028], [-0.24305284255071608, -0.47567714289428253, -0.5494027051621663, 0.2966281258197761, 0.019438849861295588, -0.37210946901108066, -0.09619806135765034, 0.20738291044315885, -0.07086678127909277, -0.21981170540339381, -0.03108213467898424, -0.16604812233565613], [-0.611904772794342, 0.15837037745380292, 0.05473106951930564, 0.07936645276313346, 0.5384035911015213, -0.0027239920037820135, 0.08547183264119065, -0.5723911571515871, 0.1309569759280087, 0.14526149541168154, -0.41095910374506445, 0.2639425561506616], [-0.250894361122092, 0.3528988560697174, -0.08472177276143956, 0.2935288872524592, -0.10664186913658608, -0.09702665466178069, 0.009680545788544204, -0.0628397693773336, -0.16498087886198148, -0.47773363418178943, -0.0029585544319207457, 0.29720121372686015], [0.258948228344153, 0.41007563258633456, 0.5881225147548116, 0.3642456467292481, 0.04372098813537783, 0.047430305589446935, 0.27474209607501165, -0.048538623532300616, 0.17947046966285993, -0.12468990664800286, 0.2940632919832054, -0.12169732568782267], [-0.19085230909520914, -0.3289431173696063, -0.3324447501272753, 0.13228807605297188, 0.21794146117442903, 0.6051372024200418, 0.22508773188172068, 0.9008614237533235, 0.2793223555131023, 0.1403316013683037, 0.38887353759667254, -0.08447603310351935], [-0.21081905076037039, -0.4957969419407887, 0.3132060532368564, -0.3710323749489733, 0.4479803129357519, -0.4031409516485962, 0.6078145951715402, -0.243795242165891, -0.3970985795890437, 0.04322390584631595, -0.5782714000036596, 0.07038739471942299], [-0.08799606818735516, -0.17992274461618538, 0.40762467730916735, -0.29763441789162304, -0.6070138671746833, -0.36733922231850746, 0.10918346873392358, 0.006691816541486153, -0.2038422215420648, 0.3178712847734049, 0.321115774774333, 0.175360892475654], [0.24451728621243482, -0.37886349633996197, 0.36340137935917355, -0.221981187293937, 0.80236825362848, 0.05778782951617591, -0.310244068092414, 0.4147976369787069, -0.23549280130336378, 0.2851417787017321, 0.02058538438553509, -0.4851016908445937], [-0.3161201197898659, -0.17511473426794277, -0.4283758702060203, 0.5644750131649955, -0.13695582613323343, -0.6176236541697618, -0.5825573747894608, 0.2149740580057404, -0.3773986498187858, -0.21647565058038018, -0.242497503244888, -0.5153030178922979], [-0.43536102327950804, -0.5305731335822803, 0.1682883740868437, 0.2472290480891291, 0.282746610572033, 0.2781481279108932, -0.5721684685727533, 0.6059252635982731, 0.25509968813009487, -0.08159672637686932, -0.7678573851298942, -0.1219726391126478], [-0.03505948208744501, -0.31942395981585714, 0.03742076568019351, -0.36808609285570215, 0.13312415252102466, 0.020228754794032505, 0.29781542426243973, -0.23845594595264755, 0.09846288831059147, 0.38187724330947637, 0.12622928592033492, 0.29032198906250367], [-0.0936096258985824, 0.32552609106145913, 0.21284623053569066, -0.14550182260867414, -0.24126930532297014, 0.3900835887287915, 0.38912348151538684, 0.40394051390627256, 0.39005375579081786, 0.4076912822770014, -0.06407097963158553, 0.05356063966776789], [-0.028151620242094822, -0.24514827733692113, 0.24449371333362221, -0.6219490984667151, -0.2656257021400854, 0.20090179999797597, -0.41104521651470965, -0.23281464968327725, 0.24168117376009485, -0.5311534190444093, 0.10605000877620348, 0.1540462270609462]], "b1": [[0.0, 0.0, 0.0, 0.0, 0.0, 0.0, 0.0, 0.0, 0.0, 0.0, 0.0, 0.0]], "W2": [[-0.17519289891426243], [0.32031979240565156], [0.0010334693076394983], [-0.03605237779345751], [-0.3949354785053255], [0.49375017932843007], [-0.05523891709188727], [0.2674202386726863], [-0.5276712490822133], [0.4307003482246643], [-0.22403558016396255], [-0.5572612187988363]], "b2": [[0.0]]}