{"W1": [[0.6168847595369312, 0.1896356194141936, -0.8143332563651215, 0.2219255492849597, -0.2424403698810276, -0.0753197830037435, -0.12300944582889019, -0.3598494047572484, 0.1541399652965034, -0.3599994483038869, 0.06678148519426852, 0.21604270940214135], [-0.10662171956854075, 0.04226317337465504, -0.27494809156835065, 0.30761672787936023, 0.012321490977218796, -0.41550060303871883, 0.12198364784893043, 0.8394035513647278, -0.5365843237667656, -0.7073389747586017, 0.1821098942337667, 0.6041882290252397], [0.1924459998490099, -0.11351333165521085, -0.011749310165608545, 0.47959441724169455, -0.05613589489103341, -0.4321568714295773, -0.11426032273806778, 0.11845992996687471, -0.07472934050859964, 0.06345926635424314, -0.6922825179425456, 0.28638016526089033], [-0.030995725972218755, 0.02940846910135192, -0.1081336214334926, 0.11946416296058944, 0.0056348515324801405, 0.34372392588905804, -0.34373806356536424, 0.09839247103584432, -0.7694956916089476, 0.1454366750818013, 0.1800490913497151, -0.22901189558904628], [-0.3478266855893909, -0.11382584578661702, 0.26370355554207847, 0.11321461202159457, -0.2624351278338576, 0.7685777278000612, 0.25081425474456415, 0.02898190640596622, -0.17899202394458313, -0.06520236237652567, -0.2171344831996264, 0.6269959529946201], [-1.0372895510615583, 0.608347817938102, 0.307989326070022, -0.13463363405794881, 0.08241670558549122, -0.5003084550833227, -0.23942383468473527, 0.3559250294095368, 0.9005470450955027, -0.22204514994513888, 0.041374259185168565, 0.8235177765400117], [-0.28767558069712823, -0.019206491671956333, 0.057725853404724484, 0.2862542634928266, 0.20318172810508717, -0.10710990409997725, -0.22551470972278354, -0.049694022015189104, -0.1820030856045889, 0.3644356078755721, 0.07875865404193627, -0.3996461819800389], [-0.5141840147046862, 0.13815678172677284, -0.5213487375490425, -0.0751636456201888, 0.6332365222484394, -0.2710353370402336, 0.22681281273346446, 0.0983492439252739, -0.4875390555187478, -0.12498607320076323, 0.23616579045635921, 0.004241853806285448], [-0.4632444926584639, 0.3424864895018849, -0.10428571282139491, -0.47634553923094203, -0.15054173120382247, -0.9058564116885106, 0.3771850229112882, 0.6856408472373726, -0.6516485899326496, -0.10290467518494141, -0.132129928155784, 0.14142953348938594], [-0.12747302672041425, -0.05958572716807988, 0.24768685458712691, -0.2819590913867727, -0.18707578507763736, 0.06617191717234494, 0.14322263780995032, 0.19250915647067998, 0.08149013446475524, -0.592707004098752, 0.5476683344008395, 0.17339116138649446], [-0.5095844470722438, -0.3001192639706694, 0.33070428641470384, 0.02255542939397179, -0.21199773954877016, 0.3732439500891519, 0.10507337262385368, 0.7214299921286365, -0.4350073174512946, -0.044823339401274816, 0.5134479888021996, -0.7243331809438909], [0.029695042014826183, -0.24776685099734733, 0.4932048029496005, 0.6083860974458429, 0.22769283083993425, 0.7195512783422475, -0.22338116318757104, -0.09458905191312496, 0.20588256344763461, 0.49204267470782875, 0.6258337889716147, 0.3641428495989322], [-0.2145566829255222, -0.2689978975589389, -0.06415326506583108, 0.37063882783288704, 0.27047347319661313, -0.5383358552762529, 0.10479547749939797, -0.07422209588578631, 0.02714811900493719, -0.5108278701710228, -0.07660076667823168, 0.3960225473662287], [-0.3006304409746243, -0.1272360738929168, 0.17148148503113103, -0.030258137008774968, 0.1926480870688984, 0.09788240037497536, 0.2847329761086429, -0.2828895622363579, -0.5074178453301629, 0.04374476009221508, 0.15565854734105602, 0.04111499675201122], [0.0783976329699614, -0.8515768203212619, 0.26158341598017504, -0.7716754868121023, 0.0661243287285996, 0.23200481849252075, -0.4624217872890928, 0.24106560667584587, -0.035676627041175364, 0.24278657208673207, 0.22929772382773372, 0.22322500704247195], [0.12177659490988786, 0.7171016733534867, 0.023035949104860877, 0.3096755035499679, -0.26535145064367194, -0.5063464709283607, 0.08597384697223324, -0.701166452812645, 0.04027475672018437, -0.0810022696840091, 0.10160870715475052, 0.25475572744855557], [-0.10240383609947164, -0.17646472029315918, 0.07564662527068507, 0.06934236888403714, 0.26899737817128155, 0.2246807504448257, 0.01979673290521253, -0.35991328391121374, 0.17447558113087616, -0.262757947368013, -0.08009908348408673, 0.22704661663344122]], "b1": [[0.0, 0.0, 0.0, 0.0, 0.0, 0.0, 0.0, 0.0, 0.0, 0.0, 0.0, 0.0]], "W2": [[-0.34244932479685364], [-0.2775529718996619], [-0.0562442675504557], [-0.11510277380958586], [0.1729297260025363], [0.5905564143515005], [0.05015443504923755], [-0.23532330079234579], [-0.3210726455926086], [0.05435259465717777], [0.5871446234088771], [-0.1913979441999212]], "b2": [[0.0]]}