{"W1": [[-0.28558636810610455, -0.7526296017160707, -0.23099654104239567, -0.09463782035371934, 0.32492645771447365, -0.01910096437977958, 0.11896597526814175, -0.1613378918601904, -0.24273704340843594, -0.086324903955777, -0.14866309747386042, -0.04750673422202229], [0.34819133496634885, -0.3493966817008887, -0.07290994994228508, -0.04708031806569676, 0.3445715560278012, -0.22773544329463274, -0.4299574523808318, -0.3715524574916969, -0.3007296352258476, -0.5612895148774666, 0.014417303810197315, 0.007861714910381686], [0.00046888038304396604, 0.08882801640043386, 0.21468446532159557, 0.5015680996801318, 0.360790624576126, 0.5469811809565834, -0.6009482980144502, 0.04215541675962858, 0.10906107431545789, 0.26554461745821767, -0.07087604106149381, 0.7788546708922146], [-0.342968291458277, -0.14668700793019854, 0.9335070056398913, -0.19813465883350717, 0.07199773749650297, -0.4723565182911464, 0.7070962237824344, -0.2821565333948323, -0.047740630786742705, -0.5927136355195698, -0.6916522419494112, -0.2459306356316501], [-0.04369197255964614, 0.5101103533494501, -0.08929940891208733, -0.16123031952308423, 0.16355651173992167, -0.45387217777741407, -0.34819890715591595, 0.07553026296456493, -0.4050988861098556, 0.1774417050007371, -0.05189566306350145, -0.3215522248454481], [-0.153556353348943, -0.022013070785165165, 0.1327282420065646, 0.05389688948150666, 0.2822449695580555, -0.5545986946915026, -0.05204695893676872, 0.13664912672828985, -0.5088420657581239, -0.06592036370932326, -0.27965904872964725, -0.27868760441837653], [0.23780444187593722, -0.027868519608874057, -0.3453147233683464, 0.24918574655015768, 0.21666509322265912, 0.15377549995520948, 0.4462423583203956, -0.18778400802713213, 0.24928349961439394, -0.40420778770364696, -0.2399703088951528, 0.6519529349686124], [-0.040637912344656475, -0.3971044158587432, 0.4248464822857255, 0.043714741220331366, 0.1834583696363877, -0.06215736895188449, 0.2815537823817509, -0.4156599600636639, 0.7197113104598457, 0.21177731266979793, 0.43370846024499615, -0.20097397523568572], [-0.3649039698056716, -0.04356078526692304, 0.006692288392308571, 0.027030530243179456, 0.580273123330701, -0.04750225732861444, -0.24452346219047136, 0.39492081846105503, 0.3645911122785433, 0.23870170210123529, -0.14340890180810226, 0.18862618165106862], [-0.04040028511059271, -0.4344271025000343, -0.5305982580891057, -0.10876937785369817, -0.5585845830712868, 0.11717194778812198, -0.5108224885927571, 0.14102814218697188, -0.1321431671664109, -0.09948776870205571, 0.16760906299999087, -0.022902516649468387], [-0.3624800490121988, -0.11102766361555656, -0.43809281715070314, 0.0543831203553946, -0.19986166193971883, 0.07480237506654541, -0.12664579306997356, -0.2597724903516977, -0.21181986078883147, -0.0723179714813044, 0.5212508955825002, 0.09661809736115529], [0.5504365865275437, 0.2794822330697234, -0.1207233242586742, 0.038362182581566484, 0.5532041859675341, 0.1978901011585132, -0.37836843408854726, -0.1808674747142062, -0.05343352435929787, 0.1743631336282774, -0.26516659421970085, 0.24219778360472735], [-0.34273352142875824, -0.001641443892551864, 0.5656479623520082, -0.4152945575049232, -0.37878530092400475, 0.26861363029077756, 0.867956458992547, 0.4716197549869385, -0.022532656530646362, -0.028114096002528923, 0.5147002134399642, -0.3434605139624184], [-0.10510391461680732, -0.12265577308754438, -0.3248735428649785, 0.059998104605711186, 0.1347306202678643, -0.4919427498180516, 0.1476085330792139, 0.01346568950430342, -0.7728308419006187, -0.15669845240234406, 0.05795609035038303, 0.053183885384940253], [0.0778995670033079, 0.2744635632293735, -0.19541133504333594, -0.9026290395055978, -0.27137023610591315, 0.032522013277129044, 0.2613852081142254, -0.31506416217500444, -0.1925727204974613, 0.05145809238002962, -0.0917768550429936, 0.23859101824318582], [0.22970984076152598, -0.5922251191768699, -0.3377990668507319, -0.07818754257464813, 0.446016705086243, -0.4307342593020792, -0.542003808069149, 0.36662315542918134, -0.0700242216914234, -0.4797635098505203, -0.20333760649187355, -0.07391579048328438], [0.17814868768134942, 0.793465498433605, -0.5344911471809995, 0.16441527308439505, 0.4243903084417276, 0.308643366002082, -0.1583578373977247, 0.19256669454042186, 0.030201275110758683, -0.6352025439885686, -0.5827420256006977, -0.7443423058733831]], "b1": [[0.0017932798611735121, 0.0, -0.0027002660220499563, -0.0011133066214685631, -0.0057331392463025104, 0.0, -0.0032477866584583867, 0.0, 0.0, 0.0, 0.0, -0.0024282988328254377]], "W2": [[0.18005900348305015], [-0.042846879408670796], [-0.26621801282159585], [-0.11039316512648911], [-0.5614635903922995], [0.7606647924810666], [-0.3221054608704121], [0.33115158294148056], [-0.5151443348511286], [-0.32873934365947477], [0.7332415979634999], [-0.23874343419699895]], "b2": [[0.010037004976963202]]}