{"W1": [[-0.29540016571980954, -0.15536826282574148, 0.06874314030716884, -0.4236887033142596, 0.08649510754173248, -0.7198832163238056, 0.3788936235105084, 0.24976505722762143, -0.4236363908297856, 0.2542478131874874, -0.12386111271958133, -0.1259005278384435], [-0.35489820567625807, 0.15456803752508919, -0.31097971794374085, -0.1695012013115536, -0.07042511562535751, -0.2773057216415225, 0.014060460092246036, -0.18144353857955955, 0.4299462002139391, 0.2185940771075321, -0.5505219457043304, 0.17224808217703483], [-0.018951422127556298, 0.11718180885813996, -0.5283118741681451, 0.24556836807350277, -0.6930446108236652, 0.26564017097643267, -0.006501840912276822, 0.12754417629890197, 0.3002075704112093, -0.2000574936844691, 0.049547709861125715, 0.13715079064524596], [0.3672597886250622, -0.2722910683637549, -0.08294015191174384, -0.35209152472100824, -0.05418657973798007, -0.2812814312303142, 0.41279977873526347, -0.2257084790417344, -0.19882862404776028, -0.3678918016634203, 0.0928667805732723, 0.0951522781385594], [-0.29581031883778086, -0.30845171784429337, 0.2100544342223086, 0.2866129771040507, 0.2867653524065027, -0.36510894782638015, 0.027917936848115228, 0.2548474373659233, -0.18786524574384622, -0.41837573209008344, 0.43133007483729924, 0.4862928686157388], [0.1057827374977726, -0.11307308055303346, 0.4862160239241302, 0.2213755724117481, 0.3706062444967946, -0.16374598816239863, 0.7789144819548303, 0.5687531163518813, -0.5712537750298188, -0.10831175077794372, 0.08980155170903151, -0.017812994590708772], [0.1411551976144368, 0.14839085938473404, 0.7471078074894879, 0.3270490567039167, 0.7784609078324612, -0.3751874344256792, 0.09184042593256113, 0.4252646373568339, 0.1075812452425072, 0.4670005550018109, 0.07295659467529991, -0.1691848210998774], [0.1716045835323894, 0.06669735417363255, -0.29368943053441804, 0.5051451069385874, -0.0009842038824867852, -0.2414477833133929, 0.1775879699854156, -0.3151424431585076, -0.05322834523136874, -0.11092056935757032, -0.06434718822127847, 0.001090454697751322], [-0.26146179798335467, 0.020263836524957723, -0.5343185940210314, 0.08172545243687679, 0.18732951621620794, 0.19980776491733046, -0.28642869574864627, -0.43564718406186925, -0.3612695465736085, -0.1738371760851787, -0.8297110042081484, -0.2881238771465258], [0.06573022887482267, 0.31176959082424455, -0.20123830245507193, -0.20000502497475076, 0.04772284810601359, -0.2974134729903428, -0.7221626047895989, -0.26829836648422584, 0.405495068521468, 0.01697438329148597, 0.46393388196229157, -0.7004916659961394], [0.024296374332055504, 0.10545819072861023, 0.3910418579702125, -0.6125693455683175, 0.5589152934547994, 0.13808009355526135, -0.37775074177231294, 0.4446253939475898, 0.007620772222890436, 0.22542964241846608, 0.2149359944349426, -0.03267639622495964], [0.4843306527867434, -0.1771762605521272, -0.5155341578885229, 0.11623919564549409, 0.5877453165645691, 0.27021458161955664, 0.6157453704137341, -0.27316164185188013, 0.09492264621632937, 0.531940756384011, 0.6721815747945968, -0.033249577930879244], [0.23362178431333933, 0.5346223711787719, -0.014404470713021183, 0.4512894532046845, -0.022876074246009095, -0.39389677447710586, -0.037150173939979936, -0.12608490044854567, 0.6778000519682321, 0.20710998023778412, -0.17453652603602912, 0.6055434486242922], [-0.18695293876381927, 0.2593450006780757, -0.09342600634918692, 0.03160665419041921, -0.43020494979657176, -0.3089920724789291, 0.7156371442155196, -0.1365999761715759, -0.5297315042336799, 0.1910301228384492, -0.40750419651612496, -0.22623606238785426], [0.06501935528640795, -0.1574111606975515, 0.3491845823177389, -0.5268559148497429, -0.35448689020906365, 0.22527534461285925, 0.06706212394818267, -0.1606469680725494, 0.45617846690612385, 0.49283719472346105, 0.3648801309258192, -0.09197032433947634], [0.2206940951154383, -0.1818805520835611, -0.7744340963532818, 0.38559670944483004, 0.03713849024383289, 0.4164077796078287, 0.10980256341575306, 0.2675604658636399, 0.18245409264126491, -0.14602096088529162, -0.6921380596142521, -0.21878200589915917], [0.36141636346326766, 0.507762259189228, -0.04145209822128286, 0.44672230666709106, -0.012973592913954566, -0.06467653513561177, -0.2179372948493511, -0.05658925695853271, -0.05343269518963053, -0.14067896498512675, 0.1855907223937911, -0.03562874870498835]], "b1": [[0.0, 0.0, 0.0, 0.0, 0.0, 0.0, 0.0, 0.0, 0.0, 0.0, 0.0, 0.0]], "W2": [[0.10405761652529066], [-0.3991374457944638], [-0.18560886342380004], [0.10629236500391688], [-0.668628158322707], [0.06279935861083503], [-0.072783008983106], [-0.45212165371385477], [0.13521888537972213], [0.6038940227892067], [-0.7084447705317537], [0.30139305510987136]], "b2": [[0.0]]}