{"W1": [[0.23402115070903393, 0.3828757325046105, -0.2873999788545268, 0.5060502581670854, 0.14034946359996311, -0.1314431119105726, -0.2740168012194145, 0.04403192531793867, -0.4778410991051309, 0.6187763958927599, 0.24092818631101368, -0.6969677495182209], [-0.1174763194519656, -0.10689904267160853, 0.06596639082474066, 0.6197102410671135, 0.6050950589149862, -0.1897645688085329, 0.2924509835722657, -0.24401091806083913, -0.159034831190478, -0.08251237018603805, -0.44832303478270935, -0.3323086185813191], [0.038330731892561073, 0.3638189840982582, -0.13063270209950806, 0.4852031271072379, -0.11366233975423776, 0.6321062065574555, 0.7141404343129738, -0.26559986681929976, -0.8831778689570613, -0.13215150358897634, 0.40385104845699665, -0.005158002470998812], [-0.1066893175320793, -0.14860328127616718, 0.41157174045112865, -0.04849115881171645, -0.002655106686119398, 0.018655087037171173, -0.34517560594482055, 0.20985903844150583, 0.0784349548409333, -0.20401840090484297, 0.3573276641930296, -0.651129079439201], [-0.14372334023265132, 0.40363661927412586, -0.2676867329069724, -0.0871717917030833, 0.3140040401961533, 0.6922407884620104, -0.21519821817814425, -0.23423514352594335, -0.6371444863933913, -0.4001422184054266, -0.07172726461781763, 0.5996436337775586], [-0.16427516634128642, 0.6160418775669928, -0.27874458805423913, -0.25876673972673825, 0.43850519684326855, -0.21690532895839784, -0.31083861226045895, 0.7099347616539861, -0.13323168825017356, -0.46480952793234137, -0.6605811937729348, -0.002309056013955881], [-0.7760689811386947, 0.6520047327363006, 0.11814153230493155, -0.475472814295224, 0.5676544341053209, -0.20092649969736145, -0.22973744572266072, 0.03891726480844142, 0.4103762138602397, -0.2244145412443168, 0.04212553443963206, -0.09223851907372196], [0.12421971730287706, 0.03328125430870287, -0.06135955059529674, 0.48065222119328105, 0.16844908216016533, 0.2940740411349575, -0.13332598172765855, -0.5096453336603475, -0.11880320081768483, 0.43309009352753725, -0.07438382052824768, -0.13665082756858993], [0.002521276719743941, 0.17105345781362175, 0.17499636984159986, 0.2375229710543924, 0.29567798609459073, -0.40037683658927614, -0.054239842444502515, 0.06989230801244406, 0.5208071028827004, 0.061259067206350416, -0.28604369082086945, 0.011499639647808183], [-0.6516311178914151, 0.1925664246472205, 0.6576741403696611, -0.14632314137830052, -0.0853978926713625, -0.11708351310384658, -0.5979360987205723, -0.29666206996042443, 0.07436867082976019, -0.2507628929525938, 0.4242338076356235, -0.02636750183022534], [0.06985353350948095, -0.17916254538194704, 0.3111341397061698, -0.6222586052594722, -0.24096331745734664, -0.36331212321860656, 0.23824903258441116, 0.11946266066076208, -0.38725308759433436, 0.04193260037818804, -0.6521807921829788, -0.09585849560266028], [-0.43210119218949516, 0.049359041226585354, 0.036767840689837, -0.02976344618588366, 0.07520589908765658, 0.2096283861013448, 0.22259849746318974, 0.5214934698228897, -0.12935963360395616, 0.3977478676494999, 0.39784319472135876, 0.4611408953406061], [-0.6737271114701824, 0.08186769883669738, 0.663751941846372, -0.4214456470679842, -0.28223121638343185, -0.24019458496663632, 0.11666077984521096, 0.20542174867266377, 0.02677969433702353, -0.018020744923713642, 0.20637525801242979, -0.1933629677373167], [-0.16747939506325005, 0.1291070964078255, 0.2083359263837993, -0.3004584400293478, 0.8526512036488215, -0.3261013949296605, 0.10478340906586878, -0.22325834624849508, -0.008239955285154392, -0.276189251043989, 0.05830763833311547, -0.15646416603134042], [0.5617385031312917, -0.4782041378479301, -0.4378119547829132, 0.0803135310861808, -0.12767369042626406, 0.34917352092722564, -0.25736638969975967, 0.24097850739959434, -0.22428975527320616, 0.20947541236368009, -0.34187401171572285, -0.45968498068413016], [-0.127847411848767, -0.22143275309088326, -0.3481851441385255, 0.25682269100509236, -0.09956059909512394, -0.3401017920481452, -0.033230228457454845, -0.34365334976722595, -4.041561014481164e-06, 0.04395878209536156, 0.022627754857964037, 0.1616441340382619], [-0.28219402675974103, 0.08548423796866014, -0.3125256407752917, 0.5977359090407389, 0.3308636281337935, -0.3789761710738235, 0.09823148347660501, 0.07140005793347931, -0.09791484356984254, -0.31245104531043866, 0.05748985038067398, -0.07398871227923128]], "b1": [[0.0, 0.0, 0.0, 0.0, 0.0, 0.0, 0.0, 0.0, 0.0, 0.0, 0.0, 0.0]], "W2": [[-0.1852701811945201], [-0.07319416895287958], [-0.7808441859038487], [0.6553145228908758], [-0.13639167417312675], [-0.08773412092640595], [0.5755868530926832], [-0.2149766337100132], [0.24286099493626717], [-0.5405900572435205], [0.17099453639980713], [-0.0025920828725584074]], "b2": [[0.0]]}