{"W1": [[0.07199869454585234, 0.0802694688513121, 0.582255499083841, -0.08541322063330514, 0.27279743554149327, -0.31039161269233606, 0.04278054761206439, -0.585377129874803, -0.6500025598284298, 0.3559976234058975, -0.023091352174942566, 0.331494176250488], [0.9008789122875716, -0.004978919709369395, 0.3150582253536481, 0.23922503658317493, 0.026614494848470775, 0.2148275671796719, -0.2339344976652398, 0.03670808084385278, -0.34460826748605133, -0.10291822598033197, -0.09519164798343434, 0.007529857225906459], [-0.3062163929811934, 0.16430592561330146, -0.3669083113991601, -0.2623284018437766, -0.252106501486097, -0.26587368191482613, 0.10550732671316503, 0.29461246104354427, -0.46987698650457654, -0.08561540368335867, 0.4972609497356199, 0.02560296691283215], [-0.36788557963983587, 0.6483331222644105, 0.22229483282309573, -0.41829907324145654, 0.0207048772709086, 0.873089815031455, -0.25421238485666653, -0.3184608499635793, -0.3565187888472321, 0.09975841458616168, 0.16851440066648232, -0.14685522074449617], [0.16799764500222142, -0.053421424725893916, -0.34051099023045384, -0.16475976336866854, 0.04421325244155708, -0.7222355145762789, -0.2943028431869962, 0.37655129080899546, 0.36043492787725684, 0.285699171259801, 0.173453055538668, -0.21872122606337213], [-0.2647938825947434, -0.00835339564554026, -0.19617150296272703, 0.08174555313305315, -0.20943271552060422, 0.12628229319485101, 0.7507441809614978, 0.324359672005795, 0.5711290371961197, -0.005938459081021382, -0.12632244865338166, -0.11754272352095553], [-0.7505381214148946, 0.4278173337151752, 0.018435046122073785, -0.07319044543578003, 0.21418932447652914, 0.1823362606574593, 0.08724741175343974, 0.4822119227278555, -0.17405579040322605, 0.09086154684832128, -0.15775369283296292, -0.32707745587306875], [0.02014243746232848, 0.057942023295182055, 0.4745892096375016, 0.41995300480444825, 0.11316061997135737, -0.00827487528144415, -0.30983500969675365, -0.11558216905805042, 0.06150186387216221, -0.2845020363107939, 0.011281337719276799, 0.06547635223737676], [-0.023359344171807284, -0.4276110907179065, -0.2600078838494843, -0.7809597151197818, 0.29023723903873305, -0.03348619604840381, -0.0477340010158796, 0.5135677857377808, 0.16157051912692302, 0.6794754616921719, -0.17551438887205031, -0.2064839095013164], [-0.3202718695650045, 0.7176640571786459, -0.6452105006014619, 0.6267815449094388, 0.6684460925396031, -0.4512100121224984, -0.21804122379701665, 0.6107140027351355, 0.07212643840231793, 0.30143846928970475, 0.12531933345133814, 0.18143986831273684], [-0.12359654806457489, -0.17181455107839397, 0.2351275019732293, -0.010970405143697258, 0.01050269739376532, -0.018080151475054356, 0.3552581723622523, -0.7488192575887926, -0.21055548313025807, 0.1784487750978561, -0.1703285222018823, 0.10367219543738822], [0.3634651678631093, -0.35143905470426334, 0.06753790809112048, 0.2381378023383337, -0.5088068909748376, 0.7202418542796977, -0.5131383535229778, -0.26279376705968155, -0.12460663620579715, 0.4401872447823999, -0.08195569762659961, 0.37236389225596245], [0.43911502448061007, 0.050500422795984226, -0.048143405044859575, -0.4473569501081084, -0.4965177833210978, 0.8974002164487835, -0.44955145236939276, 0.30102803338949885, 0.14900459936702767, 0.6196747981593002, -0.287587293855755, 0.1562179712094608], [0.0018153508388205652, -0.17109715653695223, -0.17844459711285338, 0.7804982051228206, -0.2229076130857367, -0.22019698057696102, -0.3456929341591344, -0.6812809006443002, 0.23134100284807296, -0.7988474418840339, 0.6497320199663501, 0.054047735170939824], [-0.3872984949994, -0.6668604579383779, -0.11850047767544084, -0.15969552209893392, -0.6028024202303481, 0.05941095347426113, 0.6660728560635255, -0.017660478957310686, 0.061479305874924346, 0.3356293233401285, -0.10404562194032875, 0.49233992892283507], [0.9471856005124502, -0.052051158165518835, -0.5590023800569232, -0.24000593216119911, -0.21225248379000722, 0.141178470053189, 0.14339042371805136, -0.26863555436670633, -0.5020446606867374, -0.034642487555329955, -0.23173424552698746, -0.1889258187643804], [0.30073081561288945, -0.5358670323325875, -0.4702396781209808, 0.2588590524129038, -0.6353700969972769, 0.08369230914304843, 0.17882406172005597, -0.06946022236202119, 0.18064496067825025, -0.30907994352843404, -0.3375090943634709, -0.019588561906190263]], "b1": [[0.0, 0.0, 0.0, 0.0, 0.0, 0.0, 0.0, 0.0, 0.0, 0.0, 0.0, 0.0]], "W2": [[-0.24611357902871517], [0.270785966565992], [-0.1121769400265877], [0.09069112477328789], [-0.4212973117760801], [-0.01540037537310322], [0.6453525949051897], [-0.06801327975951259], [0.048928139170894634], [-0.33661737416961285], [-0.3261652127332657], [-0.7813498207384244]], "b2": [[0.0]]}