{"W1": [[0.5950662299514294, -0.32730170819582644, -0.08466008613189073, 0.18089705145613527, 0.31056616414626736, -0.37760264314082925, 0.14535757362481605, -0.9543811461467453, -0.2333183439101155, -0.06571197773085696, -0.4784448791466068, 0.28084230246954794], [0.18727563435360406, 0.6348274802182124, 0.09390261707831055, 0.239099183366884, -0.6280363935957504, 0.4422460403477223, -0.1364056308721562, 0.15284911864941791, -0.4038344500874913, -0.3893118674498411, 0.2706685158309211, 0.1186066107971897], [0.30179447265118997, -0.16342419933280866, 0.011164535544160916, 0.13415693729284422, 0.6765912608685823, -0.1511220091008636, 0.019370138573065986, -0.3952092720973633, 0.6021480711366829, 0.6729208581272361, -0.09725878470086902, 0.13920051870518446], [-0.0027624225062788323, 0.13171528128163731, 0.057425772838163386, 0.31249719976787455, 0.45088427678679677, -0.2711764874388976, 0.18287420721877473, -0.14563091570743106, -0.20818858090902426, 0.42104272857884967, 0.3942543238957842, 0.2875956216017744], [0.5911237440459791, 0.18620374340066956, -0.37101708013280316, -0.3600065600180984, -0.04323511101328965, -0.07176496732046114, 0.3340593836133133, -0.5673265023061668, 0.3780005269760589, 0.14131451623141117, -0.5872847946524069, -0.004578734647926556], [-0.21576164544596785, -0.44427334015497766, 0.11798826561718333, 0.39583762330417205, 0.38198486727909825, -0.3032787029970082, -0.34484762231665356, 0.24361631592254865, 0.2990211093793567, 0.23610824459432758, 0.08665104765654906, 0.25072834579280495], [0.017275528369030714, 0.11863656411786766, -0.1745320789649871, 0.22847665944417803, 0.3013827059409966, -0.06651757281988765, 0.25895325336562197, 0.31632641951784607, -0.4845710855870484, -0.7230150313518541, 0.12396886728880167, -0.022630183851605992], [0.40199584961019746, 0.0812006415570963, 0.3453330503779634, -0.034123781055601585, -0.11729330215832195, 0.14067603191614844, 0.559355918555757, 0.05255054224884355, -0.12530019177909316, 0.23719971541914728, 0.21934401524671204, 0.0764642594170589], [-0.03833555221235111, -0.053470346766979066, 0.4610325070489994, -0.29392633463852014, -0.036784632177703995, 0.19507173219107254, 0.027549198046031124, 0.3731019414219907, -0.3003930506706472, 0.20256359087529743, 0.11407914110155111, 0.4311620793696323], [-0.4035576824717878, 0.022879998397570166, -0.4986099227352896, 0.12471787042132736, 0.558467601121538, -0.10967333122577509, 0.47403507345434287, -0.15900283656331185, 0.016028171611297187, 0.13351511437462404, 0.038263390349108674, 0.44766824371871883], [0.7651519491766295, -0.04921590517270936, -0.257264081371043, -0.012658192254567201, -0.3699164359863455, -0.42930934599248527, -0.5926597769761981, -0.5893921764300906, -0.014601270848253606, 0.04917616653860096, 0.09661456153484191, -0.3610368006843745], [0.21298748712196458, -0.32881544324940026, 0.13922976592161068, -0.2745147172476278, 0.29994014829591803, -0.250013565689187, 0.15235954036985558, -0.32867618804023613, -0.7015759860605477, 0.011821069338471976, 0.1954523199749926, -0.16126462852630155], [0.15820425126047336, -0.009673653186431192, 0.21437067541493623, 0.039898681281012725, -0.5648603519491945, 0.08780355320847336, 0.13598784220806054, 0.0108419271948195, 0.19557979322821267, 0.1991270064954336, -0.5601807172838219, 0.029929355695705418], [-0.3481079596319218, -0.29501076162459977, 0.3983178408287134, 0.02319759996977881, -0.14733796592627815, 0.2071620992011937, 0.3348125126586413, -0.19308835998758292, -0.05153329734944772, -0.24942098731870205, 0.2617608059475296, -0.06867244332594694], [-0.12424395186915693, 0.7746998661615513, 0.16379421294897673, 0.2414560374537824, -0.01540415396242292, 0.11847537712822623, 0.1457972414101555, -0.4006654503821871, -0.15164024335105616, 0.09845406017025773, 0.053037337513263276, -0.5523681914655855], [0.1542659409175115, 0.1511644662387438, 0.19780096660957316, 0.003020634346802859, 0.3718218501731615, -0.09002109396191142, -0.09718117713455529, 0.025441925272053353, 0.42314528392945816, -0.09742384298271621, -0.1890108044319525, 0.45325081735640665], [-0.07083335023201352, 0.20512606235986885, 0.2758494738872918, -0.33696355666934885, -0.323103374788719, 0.3806277103026186, 0.3363535661270666, -0.08584629210814915, 0.09124732874577669, 0.01804487846130657, -0.24321478596418858, 0.7415556656279009]], "b1": [[0.0, 0.0, 0.0, 0.0, 0.0, 0.0, 0.0, 0.0, 0.0, 0.0, 0.0, 0.0]], "W2": [[0.4026894263431888], [0.749789264614047], [0.099208170115084], [-0.1711773517525083], [-0.3615011681263351], [0.7277570527281119], [-0.3361644295731434], [0.37513548835566374], [0.43178070745633834], [0.12542642092513936], [0.8135881647379306], [-0.15854234665915204]], "b2": [[0.0]]}