{"W1": [[-0.2169799199400994, 0.3179049453643555, -0.542485955141498, 0.10281041299172662, 0.14077818029325045, -0.2679500820247352, 0.6209744761721573, -0.15168171513207493, 0.424378035085817, -0.4013883761914289, 0.19617267031228589, -0.06762983144405248], [0.2523631697467605, 0.3848164572371002, 0.08046980610304862, 0.1641583142984296, 0.7025657170841372, -0.061931190110046795, -0.1447793147144113, 0.07156007339507232, -0.6150930233758569, 0.2728859792027439, -0.5270990436016912, 0.7810772074794375], [-0.6258399717863895, 0.23491725648364487, -0.2928125514216447, -0.7511494701313155, -0.012879864204496902, -0.13648347497490418, 0.14850954676314718, 0.21893783844759207, 0.4208970558294168, 0.2638286732525023, -0.06519537111364108, -0.1400891567970096], [-0.2402785185051307, -0.5066404035167015, -0.05488022103641628, 0.1154744834749795, -0.46982650333101733, 0.3244369464678148, 0.4586329729342107, -0.15350029537992324, 0.09847278011038618, -0.2560946584518792, -0.17697719918935095, 0.09074782256519259], [0.185694511887892, -0.06229531009937918, -0.08193121066247973, -0.09510795722705018, -0.3595291298843046, -0.7602384342713286, -0.19425547237072, 0.007521294966092638, -0.08355558404543616, 0.04032285921034845, -0.01848289301424446, -0.36543245811817443], [0.021789571213040725, -0.48554605437021003, 0.23875609481614174, -0.2295086562871963, 0.4243085070794103, -0.11273510659910704, 0.9147103091144062, 0.650476424143752, 0.008204734345486669, -0.06830343525382133, -0.525648226142113, 1.0528681908711501], [0.0022291527240941703, 0.7063738781237046, -0.5841495882607454, 0.17345737988949186, -0.24210291320047883, -0.1558412631472162, 0.6225567389626908, 0.5781034054534615, -0.6715830150638437, -0.09659934868709454, 0.22152766396183196, -0.023238635948566125], [0.23201722668211616, 0.5251903440906124, -0.09632700918726818, -0.609529553441648, -0.7601562775691775, 0.4578851729249222, 0.5717740611460113, 0.7585575632889537, 0.015098189543343103, -0.38980132463064887, 0.07193779742304365, 0.7383331935670463], [0.1391854125492733, -0.4167366737626614, 0.25204128762187344, 0.023027609876072025, -0.06682930029866378, -0.07920756083948277, 0.2972383914921158, 0.029704241454333223, 0.23971867124945426, -0.12447427297258071, 0.6454141874584054, -0.48247806685007666], [0.5392598349389621, -0.298727481932132, -0.42335665593420246, 0.4926192827028448, -0.8707967914773188, -0.009099885980985876, -0.2328882582483193, -0.5246245823107286, -0.08070781986467185, -0.7396397875501669, 1.0282639076531481, 0.48833888605488956]], "b1": [[0.0, 0.0, 0.0, 0.0, 0.0, 0.0, 0.0, 0.0, 0.0, 0.0, 0.0, 0.0]], "W2": [[-0.17795707224787752], [0.009743875455458193], [-0.3923351152988489], [0.11632354203066923], [-0.13340072262779615], [-0.3240865292802782], [0.25287631870240207], [0.5567631942556974], [0.6512311511951446], [-0.26233651138769265], [-0.13093834467620807], [-0.4036326418465842]], "b2": [[0.0]]}