{"W1": [[0.12024806771455436, -0.05655503647888587, 0.17263399375798377, 0.3640318264264747, -0.12216087090665946, -0.20865270522094181, 0.29771625450999617, 0.02533084248316342, -0.19573957485864826, 0.22792394867714644, 0.05315989573094897, -0.2808871038174453], [0.2591310437426447, 0.5915183751652046, -0.06023945059965364, 0.1348279895280964, 0.18852831571577675, -0.2567089188587993, -0.06086771334779991, 0.022649187858008367, -0.064059786819853, 0.10946885393611278, -0.18040602600289996, 0.19811597603376171], [-0.5867743406431543, -0.19798341909872627, -0.635837860466378, -0.04765933230885842, -0.13653730439545034, -0.32152785602819767, -0.34918073580104453, 0.09337314135218815, 0.7052141299211977, 0.052114920978250524, 0.03831807353321975, -0.053197849576448956], [0.11987948528371875, -0.009684328205984957, -0.07969356015475595, -0.34751929377043134, 0.2501320099579948, -0.015446024215029787, 0.5702979527711179, 0.08939027096566303, 0.6278717834541088, -0.1429862131791166, 0.4377299015178978, 0.30430371823217794], [0.21717942226433484, -0.5064252361853957, -0.5399666244952054, -0.2194545260566248, -0.08786013352153067, -0.4594644809768406, -0.32016962893469136, -0.28814882953658355, 0.17381463208285616, 0.06417215200385855, -0.017828249390498385, 0.016574123961783475], [-0.6331029485264279, -0.1791122007527778, -0.3051025562566994, 0.001760116728597909, 0.2815044028418814, 0.5554670688056098, 0.10862627399535522, -0.4293826226675958, 0.8072306032346974, -0.21750335506369772, -0.24800867029469392, 0.08518783378763162], [-0.20647906946852324, 0.030853727391609603, 0.32403176997190014, -0.22871331853166404, -0.06867621477124225, 0.13649087052251735, -0.18424916806666564, -0.07107219968322162, 0.10779030140752452, -0.004966614973855593, -0.6655850658849205, -0.2706687565425251], [-0.41114985912142044, 0.36677719072693393, 0.6109757530613905, 0.1078721776198208, -0.18628367056535414, 0.4978217725490307, -0.2402032550332482, -0.23286357429478854, -0.32221889622567185, -0.3203320793018556, -0.3950099433376861, -0.2890845519536848], [-0.10222927483839875, 0.12825298300274368, 0.1033347392267142, 0.0860819348411714, -0.3992280808460682, -0.1424986065717408, -0.22153174326954075, -0.4174055581225386, 0.20186840517294605, -0.3369392377591071, -0.17059093074383996, 0.15512342268025184], [-0.47705815591308204, -0.3698112718152244, 0.6322956590450841, 0.108683293590316, -0.10871892040626957, -0.2262212641989903, -0.10680090408811732, -0.12604275013437755, -0.5317871522308375, 0.09401369123414768, 0.03149018709844709, -0.1535672546826197], [-0.4117691332503331, 0.04903484981718482, -0.6227179526627422, -0.21837438647235147, 0.44808174406011564, 0.16127973819037372, -0.02505331988233345, -0.2222059862615203, 0.21936876270609368, -0.4704104914338061, -0.03861878196318119, 0.01783537805903633], [0.5212815575300128, 0.13177818446048242, 0.2473671507327493, -0.3049421283031928, -0.21142927375837645, 0.27297296733972104, -0.1335089143372735, 0.16969192252147075, 0.18502911585762805, -0.16382730834657208, -0.024499019548614984, 0.46683964986708204], [0.5984171041036537, -0.17060198580730407, -0.07830162282686372, 0.13508929162269648, 0.4756853426129431, -0.10796021761688784, -0.390666500214954, -0.041228922259347656, -0.6302781780736304, -0.7689853056474374, 0.5828233853959222, 0.14883948980809292], [-0.19480350379570688, 0.33773622806062253, -0.299625806110443, -0.06793211162538448, -0.18966502169955296, 0.12021500948807033, -0.30598206431556657, -0.11466717789516516, 0.01183138946377545, 0.13438692863777962, -0.11258018586509712, 0.28335438110383354], [-0.4862550173136679, 0.40713529308526863, -0.5018199712257141, 0.49537416645538646, 0.009681140310227477, 0.112989456498432, 0.06572742980605316, -0.11701204351170326, 0.12530170899815485, 0.06141044935027764, -0.37065037009664925, 0.17556986076209405], [0.29115304887753474, -0.0024763069952678787, 0.22762562331107125, 0.43108588779863294, 0.04963139160422432, -0.05007644184825681, -0.2360037525530487, 0.3331358852209081, 0.022906573388759736, -0.3457171426776857, 0.2282943532332616, 0.11806935073032082], [0.1359170761375324, 0.17623047578167347, 0.18659348042593085, 0.4949779181123359, -0.14712287471278343, -0.28014724393551144, 0.06367106568083349, -0.09903226154343818, 0.027639134962866328, 0.2559062284098004, -0.4938041275950294, -0.1538696889289026]], "b1": [[0.0, 0.0, 0.0, 0.0, 0.0, 0.0, 0.0, 0.0, 0.0, 0.0, 0.0, 0.0]], "W2": [[0.7432310862145193], [-0.7140152158853785], [-0.6230007835365056], [-0.08036717517074281], [0.23473220445917753], [0.2193301846808928], [-0.47863201955179285], [-0.23529758127078157], [0.019510056832120124], [-0.22187317514029606], [0.699679968537706], [0.2884150399520046]], "b2": [[0.0]]}