{"W1": [[0.5284645425448518, -0.02090137384038577, 0.15517663174458685, -0.026506388120249295, 0.008834135652767278, 0.021837885314389373, -0.23996495591878608, 0.11308897507797952, -0.39184600389082486, -0.2848996368926852, -0.30858498467159245, 0.42735006677385623], [0.018165760836865795, -0.5347855243961874, 0.09908285436721538, -0.20879519364472546, 0.031135478902262325, 0.10343460686558054, 0.41819405007747135, -0.08749052457318378, 0.09369777806735727, 0.12594714343170296, 0.12241171351700683, 0.5843494768548242], [0.0316428465643032, 0.2668464217698531, 0.04790377383499049, 0.15602784760851793, 0.12386008716507546, 0.28909106337365686, -0.16268954147740852, -0.21360307949704566, -0.3442899620736343, -0.08183131713163347, 0.20487495624795202, -0.2855441049436918], [0.24291701950984956, -0.1202044925622178, 0.02573020562779656, -0.3795974236458241, -0.4740803291478221, -0.24586370700956978, 0.4377653073580776, 0.23331886085835574, 0.10890254889690092, 0.8229016016600335, 0.22817419620687676, 0.5285827585118825], [-0.35554089571859077, 0.011139940004272307, 0.11803396775753265, -0.20079201457427126, -0.021392755380629704, 0.27131275212626854, -0.23998514618162706, -0.11399708245735324, 0.5574044582629935, -0.08001260365277921, 0.3487521333447664, 0.24013742249709474], [0.275740143639845, 0.08393285038628343, -0.4415428357169636, 0.6071914591136516, 0.36321168840048695, -0.1203315211532364, 0.6717233660757351, 0.014205530112781466, 0.3704158564906373, -0.5055328649453008, 0.6360350932394967, -0.2790760600291736], [-0.08900049765084556, 0.09274092951379177, 0.30746825689807866, 0.25066989152755004, 0.17010034733980275, 0.4867102696097745, 0.3715276620781321, -0.3311708978672414, 0.7915936089505146, -0.06982334672401215, -0.030167245817827454, -0.22772123783920195], [0.35348934706500584, 0.20853423461774134, -0.6131614995563238, 0.15293057935854282, -0.7516094241053153, -0.5062388509050967, 0.26153487714845003, -0.24418678473449837, 0.22609958741082292, -0.3857226793682027, 0.09781490219073492, -0.6367006273322823], [0.8180072032885323, -0.47557278271556225, 0.1320466222741677, 0.16201639794822492, -0.6880162175694924, 0.43681551579900857, -0.15459945795235097, -0.07653694324912887, 0.3755884797409716, -0.29353057816456124, -0.06899842323170133, 0.2169675853083865], [-0.2832790765783257, -0.3175439080333918, 0.5856098666826854, -0.6661396798584652, -0.10712304794143844, -0.007135427444392736, -0.3518957648631215, 0.19281943448167282, 0.03773004286859394, -0.08815150578230806, 0.03438582971692157, 0.5265319821579816], [0.21074618489599292, -0.28738427051870064, 0.2866402185317981, 0.19727413743152405, -0.4179299220726089, -0.5308516426904277, 0.10118927402670905, -0.24673652802985818, -0.3329921763439951, -0.275375751450132, 0.3456504388774215, 0.14858413395272593], [-0.05297109842681398, -0.3394390230325978, 0.3292167505611466, -0.5391555450158256, -0.7185479985277553, 0.006231236397263409, -0.4619277160937697, -0.07075214909060487, -0.044190178787266936, 0.06018424348295073, -0.6147663587203694, 0.24116440191922484], [-0.32717658883832956, 0.6217251747136674, 0.25724914928119547, -0.7722728262473155, -0.12420020474495218, 0.40217684531914294, -0.03857644191204183, 0.19695381663250897, 0.5346852861740343, -0.49551093509680316, -0.036822700626309025, 0.35110080948511985], [-0.4424710717240676, 0.2007603506531703, 0.332534456812765, -0.0008689476354531496, 0.8538370173466036, 0.12753089946242116, -0.030109465762201554, 0.11161781770095572, 0.23373846057087933, 0.20021738743552095, 0.2602796046092277, -0.5662629170641071], [-0.26471684227952824, -0.37890100073183464, 0.17174732189617498, -0.23849213166549155, -0.68054127822375, -0.4966001589972447, 0.0711217846649162, -0.07727352426852765, -0.4584550467227141, -0.4790932157959686, 0.1785687227354811, 0.6885958489938844], [0.2745203196778861, -0.353069525726671, -0.2717748499559517, -0.17373705792011498, -0.5997899274281298, -0.33579483583629316, -0.5460423084319765, 0.2663917481345527, -0.02251086568240965, 0.6022870450204338, 0.18512671981833456, -0.14387962880280783], [0.7565700300364017, -0.3424630759572986, -0.5644911844341762, -0.32553681939398815, 0.46795798986085, 0.4927161821401352, 0.17694583532110267, -0.6368992310294216, 0.12424830680239066, -0.37645123890374144, -0.02921212808073211, 0.1212432379163942]], "b1": [[0.0, 0.0, 0.0, 0.0, 0.0, 0.0, 0.0, 0.0, 0.0, 0.0, 0.0, 0.0]], "W2": [[-0.06322346313949018], [0.4274021725199576], [0.27753587647686706], [0.16059058681321756], [0.20817491893029152], [0.6424721106668762], [0.19983593394577293], [0.5081267662392571], [-0.12776717334567433], [0.6230309200948919], [-0.01735676092480594], [-0.44316785732403285]], "b2": [[0.0]]}