{"W1": [[0.017373054889518128, 0.001105933995955043, -0.1949718707865844, -0.19532136552094653, 0.031205314836706112, 0.10616402822336829, -0.3793801102421663, 0.3629835682226698, -0.4233285135829186, 0.021134368475042842, 0.32783891382884917, -0.8512385131184783], [0.1992161504532171, -0.12959785196952484, 0.08266172571940485, 0.1950238105886341, -0.6381872256496381, 0.04604714206970699, -0.47389635639579863, 0.07904059790609187, -0.14007768859313932, 0.7353192519818083, -0.19048923281942687, 0.17234211971013175], [-0.3000297435013489, -0.3711536245050816, 0.36037440746169386, -0.059970174881067005, 0.3831220255589856, -0.9091038607977665, -0.1922506305557733, -0.1640053250554437, 1.0521084528451115, 0.44282756116467414, -0.27179421359424155, 0.0608912908016248], [-0.35527605582712496, -0.4606308965841705, 0.3286039370255323, 0.6031500571336004, -0.44032754737564433, -0.37855097370580015, 0.3922459784417543, -0.2338259170753142, 0.6647886000644646, 0.09940299306620849, 0.4317367505382921, 0.30706023517707826], [0.32157667487207403, -0.12774188788420127, 0.4715673451323533, 0.0360152220042325, 0.35313481939515473, -0.12145343683478904, 0.19168854905729335, -0.2848768464942708, -0.32954763788028857, 0.3471010411913977, 0.13035579027836317, 0.05992275340255563], [-0.05353489856853596, 0.4696202030187234, 0.3268018442404967, -0.11725112036294165, 0.3533035239255855, 0.3924340376843595, -0.49458855125093587, -0.30014552249542553, -0.48158417301184764, -0.2712247219318896, -0.5904021471908372, -0.28436969149392394], [-0.18146837337544303, -0.35332685276713144, 0.3216161266140262, -0.47245426269246543, 0.5535761925330935, -0.5695008359869335, -0.09509157738926481, -0.1345339187066749, 0.6820677291178032, -0.3766263033319093, -0.065949393787362, 0.4055328919323235], [-0.5276333492453923, -0.3126490463841106, 0.32050900304352353, 0.18561373772320208, 0.23417256357477875, 0.2659149591233133, 0.5300010573890803, 0.15153621993749034, -0.36901690125975245, 0.45751887831422955, -0.24709203098252908, -0.08870546690438383], [0.10254582056395367, -0.10289610626015298, -0.026136533849590818, -0.3219545219115153, -0.12917244303540096, -0.5518738048431729, -0.5101719800703177, -0.1346765442902304, -0.2634440637205294, 0.08387754999265394, 0.04863698501877556, -0.2471874026521263], [0.16096259537166607, -0.574951837490785, 0.7180951122841451, -0.38953789639939845, -0.3897499851480346, -0.014762293837832964, -0.2750329026487118, 0.02804580295235394, -0.5766318518172248, 0.3755065051413912, -0.24181231591782446, 0.3128057272237457], [-0.3435416686912677, 0.22985921037786008, 0.4883725334195775, 0.14646200599319134, -0.35829408735312895, 0.2151481443099788, 0.18794776818455491, 0.21298142616975388, -0.17008763396962132, 0.15164528576705824, 0.18899273019754265, -0.032021388863095974], [-0.5600675623023904, 0.3220569069810765, -0.05909715783770263, -0.26749544368779904, -0.20961348677667455, -0.6070429123702533, 0.02372939036577451, -0.11631813842996562, 0.37613138283081937, 0.31978270666150826, 0.39507935079588735, 0.05202110480877125], [0.05064193175655477, 0.2556574151351124, -0.32784469959967605, -0.14851821559528458, -0.4407980291967511, 0.5205687914859783, -0.5350463329752643, 0.4238557030965534, 0.7761496009586324, 0.041811198856546876, 0.06539644742430104, -0.4645930288901024], [-0.12895858954949604, -0.4429683499511607, 0.5107946978923198, 0.46198571738976213, 0.030077886754220087, 0.33756587819223316, 0.40543803807306494, 0.023718235660918286, -0.30029913250562423, -0.5140039814762493, -0.5455914351400112, -0.22855894427250278], [0.10547465748753357, -0.3845426313651756, 0.17703235344086965, -0.0073186964081858544, -0.4203960020959761, -0.45334607805257193, 0.33341955851478605, 0.1940324998235499, 0.17765974365945797, -0.12350984130256781, 0.33089861417102295, 0.5792195214354304], [0.6126222777694327, 0.1668398250967989, 0.20493175507078482, 0.383597012265528, -0.07258476816194655, -0.5362061766223262, -0.05417283370138656, -0.2391685177810861, 0.21435690446531092, 0.1381749919904669, 0.1816563705343933, 0.006582219581573411], [0.11838353783954664, -0.03546731487048516, 0.5125764207141389, -1.011104730132195, 0.25789732554316963, 0.2697134660033895, -0.17241142880082094, 0.2621332702334405, 0.07983246815064596, -0.3241781712784626, 0.23097253600992754, -0.44574869673319806]], "b1": [[0.0, 0.0, 0.0, 0.0, 0.0, 0.0, 0.0, 0.0, 0.0, 0.0, 0.0, 0.0]], "W2": [[-0.6349850510111676], [0.08028859988331258], [0.1821923631664343], [-0.24884018540296593], [-0.5122350087983223], [-0.21697981295357838], [0.4314022175685042], [-0.29237783134014567], [-0.6426692342369656], [0.18740039922336027], [-0.35992788965388317], [-0.4483478820011747]], "b2": [[0.0]]}